<?xml version="1.0"?>
<opencv_storage>
<stage6>
  <maxWeakCount>19</maxWeakCount>
  <stageThreshold>-1.1934535503387451e+00</stageThreshold>
  <weakClassifiers>
    <_>
      <internalNodes>
        0 -1 29328 5.8198063925374299e-05</internalNodes>
      <leafValues>
        -5.4592722654342651e-01 4.6439629048109055e-02</leafValues></_>
    <_>
      <internalNodes>
        0 -1 39870 1.5425102901645005e-04</internalNodes>
      <leafValues>
        -2.9273748397827148e-01 2.7755635976791382e-01</leafValues></_>
    <_>
      <internalNodes>
        0 -1 58352 8.3619874203577638e-05</internalNodes>
      <leafValues>
        -2.2896067798137665e-01 2.9990744590759277e-01</leafValues></_>
    <_>
      <internalNodes>
        0 -1 75819 4.7990728489821777e-05</internalNodes>
      <leafValues>
        -2.1382391452789307e-01 2.8842318058013916e-01</leafValues></_>
    <_>
      <internalNodes>
        0 -1 14865 2.5219196453690529e-02</internalNodes>
      <leafValues>
        -1.1101395636796951e-01 4.9919936060905457e-01</leafValues></_>
    <_>
      <internalNodes>
        0 -1 63081 7.6335400808602571e-04</internalNodes>
      <leafValues>
        -1.8262504041194916e-01 2.7062296867370605e-01</leafValues></_>
    <_>
      <internalNodes>
        0 -1 47730 1.4239536225795746e-01</internalNodes>
      <leafValues>
        -7.8738674521446228e-02 6.5218567848205566e-01</leafValues></_>
    <_>
      <internalNodes>
        0 -1 60827 -1.7339685931801796e-02</internalNodes>
      <leafValues>
        6.4782828092575073e-01 -5.6350145488977432e-02</leafValues></_>
    <_>
      <internalNodes>
        0 -1 13915 4.8324242234230042e-03</internalNodes>
      <leafValues>
        -1.4067949354648590e-01 2.9572233557701111e-01</leafValues></_>
    <_>
      <internalNodes>
        0 -1 49876 7.3905696626752615e-04</internalNodes>
      <leafValues>
        2.0776857435703278e-01 -2.9333308339118958e-01</leafValues></_>
    <_>
      <internalNodes>
        0 -1 20321 7.1518174081575125e-05</internalNodes>
      <leafValues>
        -2.1061748266220093e-01 2.5527063012123108e-01</leafValues></_>
    <_>
      <internalNodes>
        0 -1 58050 -1.8294588662683964e-03</internalNodes>
      <leafValues>
        -3.2989042997360229e-01 1.8226450681686401e-01</leafValues></_>
    <_>
      <internalNodes>
        0 -1 62011 3.6837882362306118e-03</internalNodes>
      <leafValues>
        -2.6123309135437012e-01 2.1530307829380035e-01</leafValues></_>
    <_>
      <internalNodes>
        0 -1 61322 1.6337599605321884e-02</internalNodes>
      <leafValues>
        1.0056730359792709e-01 -6.2342959642410278e-01</leafValues></_>
    <_>
      <internalNodes>
        0 -1 72819 3.8203177973628044e-03</internalNodes>
      <leafValues>
        -7.4050568044185638e-02 6.3421189785003662e-01</leafValues></_>
    <_>
      <internalNodes>
        0 -1 13630 -8.5400249809026718e-03</internalNodes>
      <leafValues>
        5.5107474327087402e-01 -7.5967706739902496e-02</leafValues></_>
    <_>
      <internalNodes>
        0 -1 12295 7.0899389684200287e-03</internalNodes>
      <leafValues>
        7.6440595090389252e-02 -5.9723699092864990e-01</leafValues></_>
    <_>
      <internalNodes>
        0 -1 53757 -2.5944180786609650e-02</internalNodes>
      <leafValues>
        -8.8930487632751465e-01 3.9194934070110321e-02</leafValues></_>
    <_>
      <internalNodes>
        0 -1 8377 8.2935119280591607e-05</internalNodes>
      <leafValues>
        -2.2925400733947754e-01 2.1304932236671448e-01</leafValues></_></weakClassifiers></stage6>
</opencv_storage>
