<?xml version="1.0"?>
<opencv_storage>
<stage3>
  <maxWeakCount>17</maxWeakCount>
  <stageThreshold>-1.0930787324905396e+00</stageThreshold>
  <weakClassifiers>
    <_>
      <internalNodes>
        0 -1 790 1.4082049950957298e-02</internalNodes>
      <leafValues>
        -4.1133004426956177e-01 3.8636362552642822e-01</leafValues></_>
    <_>
      <internalNodes>
        0 -1 11667 1.3998102396726608e-02</internalNodes>
      <leafValues>
        9.4404645264148712e-02 -7.0159947872161865e-01</leafValues></_>
    <_>
      <internalNodes>
        0 -1 65044 4.8716627061367035e-03</internalNodes>
      <leafValues>
        1.2361974269151688e-01 -4.4759681820869446e-01</leafValues></_>
    <_>
      <internalNodes>
        0 -1 13526 5.2658855915069580e-02</internalNodes>
      <leafValues>
        -1.4555644989013672e-01 4.2399621009826660e-01</leafValues></_>
    <_>
      <internalNodes>
        0 -1 16320 2.5814643502235413e-01</internalNodes>
      <leafValues>
        -4.2620714753866196e-02 8.2998162508010864e-01</leafValues></_>
    <_>
      <internalNodes>
        0 -1 68339 4.3887496576644480e-04</internalNodes>
      <leafValues>
        1.7552319169044495e-01 -3.7188774347305298e-01</leafValues></_>
    <_>
      <internalNodes>
        0 -1 14890 4.2290918529033661e-02</internalNodes>
      <leafValues>
        -1.3202707469463348e-01 4.8744070529937744e-01</leafValues></_>
    <_>
      <internalNodes>
        0 -1 7753 3.6144906189292669e-03</internalNodes>
      <leafValues>
        9.2941977083683014e-02 -6.4553695917129517e-01</leafValues></_>
    <_>
      <internalNodes>
        0 -1 62077 1.9500649068504572e-03</internalNodes>
      <leafValues>
        -1.9021819531917572e-01 3.1758788228034973e-01</leafValues></_>
    <_>
      <internalNodes>
        0 -1 53166 -1.6231031622737646e-03</internalNodes>
      <leafValues>
        -3.2563334703445435e-01 1.7094755172729492e-01</leafValues></_>
    <_>
      <internalNodes>
        0 -1 10204 1.8580273026600480e-03</internalNodes>
      <leafValues>
        -1.7204827070236206e-01 3.2439327239990234e-01</leafValues></_>
    <_>
      <internalNodes>
        0 -1 40057 6.8720290437340736e-03</internalNodes>
      <leafValues>
        9.5071457326412201e-02 -6.5969109535217285e-01</leafValues></_>
    <_>
      <internalNodes>
        0 -1 34046 1.3839712366461754e-02</internalNodes>
      <leafValues>
        1.0721773654222488e-01 -4.4601029157638550e-01</leafValues></_>
    <_>
      <internalNodes>
        0 -1 31464 -1.0409215465188026e-02</internalNodes>
      <leafValues>
        -6.7596536874771118e-01 7.3891505599021912e-02</leafValues></_>
    <_>
      <internalNodes>
        0 -1 47607 1.1202544905245304e-02</internalNodes>
      <leafValues>
        -8.2025326788425446e-02 7.7988517284393311e-01</leafValues></_>
    <_>
      <internalNodes>
        0 -1 55739 -3.6012090276926756e-05</internalNodes>
      <leafValues>
        -2.2582936286926270e-01 2.3010060191154480e-01</leafValues></_>
    <_>
      <internalNodes>
        0 -1 2762 1.9376695156097412e-02</internalNodes>
      <leafValues>
        -7.1813024580478668e-02 6.7398470640182495e-01</leafValues></_></weakClassifiers></stage3>
</opencv_storage>
