<?xml version="1.0"?>
<opencv_storage>
<stage2>
  <maxWeakCount>9</maxWeakCount>
  <stageThreshold>-1.3812285661697388e+00</stageThreshold>
  <weakClassifiers>
    <_>
      <internalNodes>
        0 -1 20161 4.1459994390606880e-03</internalNodes>
      <leafValues>
        -6.0897433757781982e-01 2.8985506296157837e-01</leafValues></_>
    <_>
      <internalNodes>
        0 -1 739 6.6122847795486450e-01</internalNodes>
      <leafValues>
        1.2569214403629303e-01 -8.5619962215423584e-01</leafValues></_>
    <_>
      <internalNodes>
        0 -1 67236 3.3395361242583022e-05</internalNodes>
      <leafValues>
        -3.4924343228340149e-01 3.8820719718933105e-01</leafValues></_>
    <_>
      <internalNodes>
        0 -1 2100 -6.5718896687030792e-02</internalNodes>
      <leafValues>
        -6.7012292146682739e-01 2.1026672422885895e-01</leafValues></_>
    <_>
      <internalNodes>
        0 -1 73747 3.9076415123417974e-04</internalNodes>
      <leafValues>
        -2.9541608691215515e-01 4.4844084978103638e-01</leafValues></_>
    <_>
      <internalNodes>
        0 -1 42722 -8.9854001998901367e-02</internalNodes>
      <leafValues>
        7.2484427690505981e-01 -1.2753051519393921e-01</leafValues></_>
    <_>
      <internalNodes>
        0 -1 28084 7.3165250942111015e-03</internalNodes>
      <leafValues>
        -1.1675181239843369e-01 7.6871168613433838e-01</leafValues></_>
    <_>
      <internalNodes>
        0 -1 7118 -5.0537906587123871e-02</internalNodes>
      <leafValues>
        -7.2221571207046509e-01 1.6142992675304413e-01</leafValues></_>
    <_>
      <internalNodes>
        0 -1 15693 9.4530754722654819e-04</internalNodes>
      <leafValues>
        -3.8070112466812134e-01 3.5917049646377563e-01</leafValues></_></weakClassifiers></stage2>
</opencv_storage>
